{"name":"sp_boxconstraint","n":200,"p":40,"col_ptr":[0,28,58,85,128,162,187,224,250,283,310,340,372,396,419,452,485,510,544,575,602,628,659,690,720,756,786,810,839,863,889,910,942,975,1002,1036,1071,1099,1128,1156,1200],"row_idx":[7,8,9,11,17,36,42,45,49,55,65,71,80,98,109,113,114,116,121,133,136,147,152,167,170,178,182,188,4,9,10,16,17,19,24,37,43,54,60,65,66,77,78,79,89,95,121,122,125,134,137,147,148,151,153,169,182,199,0,7,13,28,37,46,48,51,57,71,72,75,83,88,91,108,127,131,136,138,142,148,167,177,184,193,198,0,5,8,10,17,18,22,33,34,37,40,41,42,49,50,60,69,78,92,97,99,100,102,105,114,118,119,127,136,138,145,146,148,149,153,165,168,174,178,179,183,192,194,0,4,19,28,29,34,37,43,44,45,54,60,63,69,97,99,102,108,127,137,141,143,146,152,153,156,162,166,178,179,181,186,188,196,6,8,9,21,26,31,45,48,55,62,69,76,78,81,83,96,102,109,137,140,147,148,154,176,181,6,23,30,32,37,44,45,46,55,58,64,68,71,72,76,83,85,86,89,92,103,108,109,114,133,138,140,151,152,169,170,172,178,183,184,189,192,9,12,15,43,56,58,87,94,95,97,102,107,115,119,120,122,124,135,141,146,152,173,178,183,188,192,2,5,10,16,22,27,33,38,39,45,48,53,55,56,68,70,80,95,96,126,146,147,149,153,156,159,160,167,169,173,179,182,191,5,7,10,12,55,58,64,67,72,73,78,81,104,105,111,118,126,130,134,159,161,163,165,168,193,195,197,0,3,4,13,20,25,26,36,37,44,63,74,92,97,106,107,110,114,115,116,121,123,126,134,143,152,153,160,167,184,24,26,41,52,54,61,62,70,76,80,86,87,88,100,112,119,126,130,132,142,143,149,150,151,160,161,172,182,189,190,193,197,5,18,24,39,40,43,44,47,51,54,56,61,62,74,76,87,107,125,148,153,164,166,180,189,2,3,10,15,31,38,57,59,77,114,116,117,129,131,140,142,147,150,161,179,184,187,196,2,8,23,31,32,41,45,46,54,69,86,90,91,94,104,109,116,122,123,128,132,136,142,156,160,161,163,168,171,179,182,184,197,3,7,15,20,36,39,40,54,60,71,79,83,84,88,92,94,102,115,121,128,130,138,141,142,155,159,164,165,170,178,180,184,198,9,14,17,18,27,28,38,42,46,47,52,72,97,98,105,116,121,122,148,149,151,155,159,165,181,6,12,25,29,30,37,41,53,60,61,76,79,81,88,89,96,98,105,115,134,138,139,143,148,158,161,163,164,175,177,178,180,189,198,1,6,19,22,24,30,33,49,57,59,62,63,66,67,97,99,108,115,116,122,128,141,153,161,163,178,180,186,191,195,197,4,6,13,36,43,48,49,63,67,69,71,96,100,110,114,120,124,128,135,148,152,159,165,166,181,187,191,19,20,21,32,35,39,51,54,58,59,65,68,79,106,114,116,120,124,126,143,152,156,157,164,177,180,23,25,29,46,47,56,61,63,67,70,74,76,79,88,103,109,115,123,126,127,133,136,138,150,154,160,164,188,190,193,195,0,24,38,40,44,48,58,70,75,77,83,90,91,102,107,109,120,133,136,150,152,155,156,161,169,176,181,182,193,195,198,6,9,16,19,22,24,25,27,35,44,45,65,75,80,82,88,91,98,109,113,124,126,127,128,166,171,176,181,182,194,2,5,11,12,15,23,28,34,42,43,54,77,80,92,96,103,108,110,116,118,120,121,128,130,142,145,149,151,155,161,170,177,180,183,184,191,1,11,19,22,26,29,40,49,50,62,65,86,104,105,106,109,113,124,126,127,128,136,141,147,159,166,169,173,174,194,0,1,7,13,18,30,34,39,41,45,46,59,66,68,70,89,107,119,131,139,144,160,184,199,6,12,32,34,40,56,57,59,63,74,82,84,88,89,100,102,105,129,133,134,136,151,158,165,167,177,178,189,193,1,17,23,26,38,47,53,54,58,88,89,103,105,108,109,128,137,169,174,179,180,192,197,199,0,16,49,51,57,62,67,74,78,79,88,90,102,103,109,118,122,126,146,152,169,174,180,183,185,196,12,15,49,53,55,66,76,82,89,90,99,110,129,137,157,161,163,170,186,187,188,4,7,27,47,48,50,53,55,64,65,66,71,80,87,101,108,109,111,115,135,136,137,138,140,150,151,153,156,169,173,186,199,3,5,13,23,28,33,35,47,57,69,70,85,87,97,105,110,120,122,129,131,136,139,142,151,152,154,158,163,170,172,193,197,198,12,13,18,25,28,45,51,58,72,74,78,86,87,93,95,103,115,126,137,156,161,169,172,175,186,190,197,5,19,21,27,38,51,54,58,70,75,77,78,81,84,94,98,103,113,117,120,121,125,126,134,144,154,155,157,159,160,174,180,185,197,13,15,22,23,28,31,33,44,47,57,60,64,69,70,71,91,93,104,105,108,110,132,135,137,144,151,152,156,167,169,172,173,177,184,193,5,7,8,18,19,20,28,37,39,52,61,64,68,74,75,82,83,94,99,120,134,138,140,141,144,161,167,199,2,5,7,15,38,40,43,53,54,58,60,61,72,81,82,93,98,111,114,122,150,151,166,172,176,177,180,183,185,0,2,11,12,18,27,30,34,41,47,61,70,91,92,95,102,105,108,116,117,128,134,142,160,171,182,187,194,1,11,19,25,26,27,45,55,57,73,74,76,77,81,82,83,85,87,92,93,96,103,106,107,112,115,116,121,125,133,140,141,147,149,159,161,166,167,176,177,181,185,186,191],"values":[-0.81,0.44,0.36,-0.84,-0.14,-1.8,-1.1,1.3,0.68,2.4,-0.88,1,1.5,-0.068,0.82,1.5,0.79,1.5,-1.3,1.8,-1.2,1.6,-0.53,0.35,0.53,0.043,-1.1,2.3,-0.67,1.1,0.42,0.036,-1.6,1.1,0.64,-0.27,1.2,0.29,1.5,0.24,-0.27,0.66,-0.57,0.46,0.19,0.56,0.12,0.89,-0.029,1.8,1.6,-0.95,-0.48,0.19,-2.1,-0.57,-0.91,-0.51,0.33,2.5,0.96,-0.44,-0.11,0.35,0.28,1.1,2,-0.24,0.057,-0.33,0.58,0.17,-1.3,1,1,1,1.4,0.86,-0.49,0.12,-1.6,0.064,-0.34,-0.9,-0.49,0.97,-0.56,0.71,1.3,1,-0.13,0.22,1,-2.2,-0.76,1.2,-0.2,-0.95,1.6,1.2,0.66,1,0.095,-0.34,-0.39,-0.59,-0.42,-0.35,1.8,-0.1,0.058,1,-0.29,0.28,0.39,0.036,0.72,-0.86,0.36,0.056,0.37,0.57,0.43,-0.85,-2.8,-0.35,0.66,0.77,0.13,-1.9,2.3,0.6,0.47,1.8,0.074,0.32,0.00063,0.24,0.94,0.93,2.1,1.4,-0.44,0.16,0.43,1.1,0.28,-1.3,-0.32,-1.5,0.44,-0.26,3,-0.3,-0.16,0.63,-2,-1.1,1.4,-0.32,0.68,-2.9,0.3,0.11,0.77,-0.046,1.2,0.24,1.4,-0.54,0.31,-0.4,-0.053,-0.58,-0.014,-0.058,1.3,-1.1,-0.75,-1.7,0.093,-0.26,0.35,0.47,-0.83,0.47,0.62,0.14,-0.7,0.85,0.98,-1.3,-0.41,0.74,0.57,-0.017,-2.3,1.2,-0.26,-2.4,-0.67,-0.15,-1.1,1.4,-1.2,-0.73,1.8,0.61,-1.1,0.47,0.92,-0.94,-0.0091,0.37,-0.44,-0.097,-2.1,-0.72,-0.11,-1.7,0.73,1.4,-0.25,0.41,0.74,0.94,-0.67,-0.02,0.93,0.0053,-0.41,-0.69,0.33,0.83,-1.4,-0.017,-1.1,0.83,-0.71,-1,-1.2,-0.23,-1.7,0.14,0.72,-0.65,1.1,-0.83,-0.58,-0.88,-1.3,0.92,-0.031,-0.3,1.1,-1.1,-1.3,-0.019,0.4,-1,-0.2,-1.2,0.29,0.8,1.2,-1.3,-1.5,-0.36,-0.73,0.028,-1.5,0.24,-1.8,0.21,-0.13,0.8,-0.93,0.049,-0.77,-0.33,0.2,0.15,0.89,0.18,0.005,-2,-0.71,-0.3,-0.74,-0.18,0.23,0.057,-1.5,-0.88,-1.3,-0.32,1.7,0.74,-0.74,-1,1.8,-0.73,-0.62,-0.34,1.4,1.2,-0.36,-0.94,-0.54,-0.72,0.56,0.18,1.4,1,0.39,0.69,0.044,0.18,1.4,0.083,1.4,-1,0.51,-0.38,-0.19,-1.4,-0.045,0.17,-2.5,-0.35,0.12,-0.089,1.3,0.044,-1.1,-0.2,-0.51,0.037,-0.15,0.58,-0.42,1.8,1.1,0.76,-1.2,-0.19,-0.086,-1.7,-0.87,1.1,0.48,-0.18,0.65,0.63,0.45,-0.5,-2.3,-1.7,1.3,0.029,-0.96,1.2,1.2,1.4,-0.58,-1.1,0.0035,0.55,0.14,1.8,-1.2,-1.8,-1,0.8,1.1,1.6,-1.7,-0.7,-0.14,-1,-1.4,0.033,-1.3,-2.3,-0.088,1.7,-1.4,-1.2,-0.58,0.23,0.95,-0.27,0.31,-0.28,0.34,0.41,-0.26,0.075,-0.34,-0.44,-0.82,0.6,-0.52,-0.56,0.41,1,-1.9,0.61,0.13,0.6,1.2,-0.49,0.25,-0.33,-1.3,-0.071,-0.079,-0.035,1.6,-0.043,0.41,0.37,-1,-0.48,-0.91,0.54,1.9,0.74,-0.46,1.9,-0.066,0.12,0.56,-0.27,-0.79,0.63,1.3,0.52,-1.3,0.13,1.7,0.71,-1.4,1,0.28,-2.2,0.89,-2.5,-1.5,0.059,-0.67,0.29,0.76,0.29,0.52,-0.22,0.65,-0.67,0.12,-0.2,-0.72,1.2,-0.25,-0.37,1.2,-2.6,-0.63,-1.2,1.2,0.29,1.1,1.6,-0.19,0.49,-1.3,-1.5,1.6,0.17,-0.19,0.12,0.42,0.31,0.66,-0.86,-1.5,-0.56,-1.7,0.78,-0.84,1.7,0.91,1,0.36,-0.69,0.17,0.52,-0.0048,-0.38,0.62,0.7,-0.88,-0.55,0.61,-0.68,-0.21,1.3,-0.7,-0.0089,-0.3,2.2,1.9,1.3,0.63,0.79,0.89,-1.8,-0.26,0.74,-0.45,-0.65,-0.48,1.2,0.71,1,-1.2,0.38,-0.63,0.14,1.2,0.25,-1.3,0.28,0.085,0.4,0.15,-0.6,-1.1,0.26,-0.23,-0.63,0.83,-0.47,-0.1,-0.16,0.7,0.48,-0.57,-0.89,-0.79,-1.3,-1.4,1.1,0.79,0.32,-0.015,-1.2,-0.14,0.019,0.67,-0.27,-0.9,-1.1,-0.55,0.88,-0.68,-0.15,0.19,1,0.15,0.042,-0.12,-1.1,-3.4,-0.0066,0.45,-0.58,1,-0.2,2.1,-0.82,0.64,-0.67,-1,-0.49,-0.77,-0.36,1.6,0.06,-0.0041,-0.11,-0.25,0.55,-1.4,1.1,1.8,-0.92,-0.46,1.6,-1,0.34,0.27,1.3,0.66,-1.3,0.81,-0.24,1.2,2.2,0.22,-0.98,1.5,0.4,-2.1,-1.3,-1.6,-0.91,-0.35,-2.4,0.27,-1.9,0.32,2.1,0.84,-1.4,-0.83,-0.45,0.31,0.88,1.8,-0.059,-0.21,0.23,0.37,0.17,-1.3,0.39,0.97,-1.6,1.3,-1.1,1.2,1,0.76,1.9,0.89,0.52,-0.29,-0.68,0.46,-0.99,1.1,1.8,-0.76,0.23,1.4,0.28,0.1,-1.2,0.16,-1.3,1,-0.28,0.48,-0.06,0.54,-0.14,1.2,-0.94,-1.1,-0.11,0.8,0.16,-0.56,-1.2,0.17,-0.14,-0.12,-0.71,-0.11,-0.54,0.088,0.1,-1.1,-0.57,-0.39,0.27,-0.77,-0.42,-0.22,-0.9,-0.96,-0.2,0.34,0.34,0.92,0.67,0.022,-1.1,0.63,0.6,-0.025,-1.1,-1.1,-1.6,0.16,-0.36,-0.73,-0.28,1.9,-2.1,0.91,0.78,-1.3,0.35,-0.54,0.16,0.7,-0.23,0.71,-0.79,-2.6,0.33,-1.2,0.4,0.5,1.8,0.05,-0.18,0.062,1.5,0.076,-0.16,1.3,-2.7,-1,1.4,-0.12,-2.2,1.9,0.079,-0.68,-1.3,1.8,1.1,1.2,0.47,-0.81,-0.11,0.1,-0.054,0.93,0.59,2.8,-0.67,0.8,-1.7,-0.77,0.41,1.9,-1.4,0.11,-0.74,-0.43,-0.024,-0.59,-1.3,0.41,1.1,-2,-0.11,0.79,-3,0.98,1.2,0.08,-0.86,0.52,0.12,-1.6,0.26,0.73,-0.038,-0.66,0.85,0.17,-0.63,0.19,1.2,1.4,-1.3,-1.5,-0.37,1.2,-0.015,0.71,0.37,2.3,-0.16,0.64,1.1,2.2,-0.75,0.79,1.4,-0.38,0.058,-0.15,-1.4,0.019,-0.7,-1.9,-0.77,2.1,-1.2,-0.57,-0.17,0.79,-1.2,-1.2,-1.6,1.2,0.35,-0.71,-0.15,-2.3,0.79,-0.067,-0.83,0.07,-0.71,-0.54,-1,0.44,0.77,1.5,0.13,-1.6,0.55,1.2,-0.39,0.54,1.2,-1.4,-1.7,-1.5,1.4,2,-2.4,0.64,-0.33,1.7,0.45,0.11,0.98,-0.31,-0.98,0.93,-0.25,-0.59,-1.2,2.7,-0.19,0.98,-0.75,0.58,-1.4,0.93,-0.97,1,-0.061,0.8,-1.3,-0.38,-1,0.7,0.067,-0.13,0.35,0.69,0.53,0.33,-0.74,-0.068,-1.2,-1.9,-0.44,-0.62,0.34,-0.65,0.014,-0.22,0.33,-2.3,-0.81,-1,0.26,0.055,0.0087,0.35,-2,0.13,-0.97,-1,0.53,-0.91,1,-0.56,0.85,0.35,-0.83,0.14,0.95,-0.038,-0.71,-0.47,-0.48,0.15,-1.3,-0.15,-0.56,-0.67,0.27,0.14,-1.3,-0.46,0.3,0.79,-0.44,0.32,1.1,0.15,0.48,2.5,-0.59,-0.58,-0.21,-0.18,-1.1,1.3,-1.6,0.37,-0.55,-2,-1.1,0.12,1.6,0.93,0.51,-0.95,-0.8,-1.2,1.2,0.073,-0.29,-0.28,0.87,2.1,-0.67,-0.4,0.39,0.047,1.4,1.1,0.34,-0.34,1,-0.66,-1.3,-0.49,-0.87,0.87,-0.044,-0.54,0.23,0.25,-0.32,-0.94,1.3,1.6,1.4,-0.97,-0.99,0.59,0.37,0.7,0.45,-1.1,0.42,1.4,2,-0.14,-0.3,-0.079,-0.19,1.2,-0.74,0.27,0.39,-0.41,0.84,0.84,-1.6,0.38,-0.37,-0.29,0.063,-1,-0.66,0.58,0.73,0.34,-0.58,0.12,-0.99,0.11,0.98,-0.27,-0.64,-0.27,0.75,0.58,-0.43,0.1,0.53,0.75,-1,-0.65,-1.4,1,-0.17,-0.24,1.4,-1.1,0.34,0.44,0.77,-1.3,1.4,-0.56,2.1,1.6,0.3,-1.8,0.18,-0.77,-2.4,-0.24,-0.86,2.6,0.32,-0.0052,1.1,1.2,-1.8,0.53,0.09,-2.5,0.95,-0.14,-0.15,1.3,2,-0.023,-1.3,-0.21,0.46,-0.51,-2,-1.8,-0.42,0.078,1.1,0.56,-0.71,-0.6,-1.1,-0.49,2.7,-0.056,-0.41,-0.11,0.62,1.3,1.3,-0.41,0.36,0.79,-0.12,-0.32,1.1,1.1,-0.67,-0.55,-2.4,0.16,-0.4,-1.1,-0.081,-2.3,0.41,-1.9,1.6,0.63,0.38,-0.9,-0.81,-0.16,0.75,-1.9,0.85,0.39,0.67,0.31,0.17,0.19,1.7,-2.1,0.89,-1.4,-0.67,-0.15,0.16,-0.39,0.91,0.017,-0.29,1.1,1.4,-0.52,0.62,1.9,-1.8,1.3,-0.79,2.4,0.4,0.12,0.79,2,0.36,-0.76,1.1,-0.74,2.7,0.83,0.6,-0.12,2.3,1,-0.75,1.2,-1,-1.2,-0.37,0.15,-0.42,0.37,0.62,0.049,0.0044,1.1,0.49,-0.35,-0.28,-2.7,0.96,0.9,1,-0.86,-2.5,-0.7,0.53,0.11,0.064,0.19,1.3,0.2,0.18,-0.49,-1.8,0.37,0.41,-0.54,0.91,0.36,-1.5,-1.5,0.2,-1.6,0.55,0.4,1.3,0.61,1.4,-0.28,0.28,0.04,1.6,0.72,0.9],"y":[2.60162697339748,0.828182094437727,-1.90013381883557,0.638220611560677,-4.76069752867352,-0.0258466129049434,-1.32608752270276,3.35189407894425,2.41686532565584,2.2829689443305,2.99354726194976,-0.44432525355719,-0.454168808717813,0.616206559246188,0.461747310911523,-0.0127876504062999,1.37620364420789,0.350318422123751,0.764876569333146,4.62349957171844,0.00715619880919131,-0.136670863815558,0.238718881381043,0.435393769248219,1.24621095699893,-0.450724136902661,-0.0811371069499021,0.710343021752631,-0.0790617778500843,-0.176725603810034,1.01767059470481,-0.456824223499966,0.700053883263406,2.32450007871222,-0.675986262498235,-0.588162684096794,-2.4378368802662,-1.05593519445069,-0.0703584623946044,-0.518372475229525,3.71919943391078,-0.0897395977501402,-2.80054716568529,2.35120471195897,-0.898774278958956,1.3215579269916,1.99985136726372,0.502605571600589,0.328327259458276,3.7218590694454,0.861862858984084,-0.594453201640344,0.188673985026554,-0.319482718440149,-0.0715582740455933,1.99997174257512,0.0700184584200274,2.78682973372965,-0.232917127733573,1.45256170926289,3.62886407435091,0.476606826425276,0.693973120637904,4.36356230831415,-1.11120052474898,-0.572372796823786,-0.4252253555737,0.684330500816609,0.936565665656989,3.0008522814101,-0.578311425595842,2.83391896493003,0.332156232187456,0.638751395873405,0.781008849544868,0.213393003012472,-0.0513684675243074,3.563325639332,-1.93982856845622,0.777671197136914,1.82585946740486,0.0946369021354068,-0.465496190806697,0.661731945214367,0.733755750122412,0.265648235545061,-0.52712526042489,0.66210274853752,-1.98532764264299,-0.488100643331814,-1.99836587613614,-2.89334110635551,0.534844553377294,-2.17570256311914,-2.47096202583121,2.59332799706189,0.611601197909781,-2.32108999724307,0.655706795086152,-1.57670326237855,-0.640953575454871,0.265161924419002,0.894423769092493,0.364155826771142,-0.229316328965775,3.63390613548822,1.24883253551157,-1.43488373409614,2.37387365708161,0.618701223863607,-0.852340184396408,-1.95452385860411,1.68189034983409,1.55698709593779,2.68567410913144,-1.3408609131139,3.06887197513914,-0.915902784640514,-0.524469606903688,0.657369136369048,-1.00761670927534,-1.76079069713698,2.16908305073598,-0.878268498085476,-1.31215798687909,1.22988529249977,-0.593791804740384,0.331506975754227,-0.00366497105542746,-0.73167318607284,-0.944537837805891,1.58438829981928,1.21454632714873,1.6097084284641,1.24538661391552,-0.0463660326422857,-0.00570012763238859,0.367111140298424,3.64928908846648,-0.928108071823118,-0.330081535988646,1.14652121264265,0.164004936707507,-4.54768169135193,-0.216008960590693,-2.2778983275898,1.73526909578345,1.00292843414257,-2.25485434417237,1.92886604405002,0.646188186007692,0.854529091777787,-2.44296846084781,-1.79427651632487,-0.205428761436417,1.39577228551632,-1.25417539040799,-0.243173557407196,0.86216225767656,-0.441077146369484,0.469549431720864,-0.323439402340549,-0.75541482836799,-0.116476061438122,0.26855708561163,0.814427492205416,-2.42768394550179,-2.44693169294693,-0.112632003971765,-2.48899982798571,-1.48133958042429,0.448040166468938,2.12931932944684,-0.0852474863176408,1.41671801535193,-0.418322506050631,0.198457710626493,-0.291084750585723,-3.6708786793537,-5.17971021602014,-0.753706248088731,2.30937619399824,-4.04886912773362,0.12569959369083,-0.996824130722321,-0.496259233613017,-0.0306235632672111,1.56381257121006,4.76614971707933,-0.189359182435493,0.0201396799435682,0.668669788099991,1.2766888168694,-1.57118003511508,1.69357766908764,-0.440800771218002,-2.22089909917835,1.19699587738274,-1.3221344281993,-1.21260820372868],"weights":[1,1,1,1,1,1,1,1,1,1,1,1,1,1,1,1,1,1,1,1,1,1,1,1,1,1,1,1,1,1,1,1,1,1,1,1,1,1,1,1,1,1,1,1,1,1,1,1,1,1,1,1,1,1,1,1,1,1,1,1,1,1,1,1,1,1,1,1,1,1,1,1,1,1,1,1,1,1,1,1,1,1,1,1,1,1,1,1,1,1,1,1,1,1,1,1,1,1,1,1,1,1,1,1,1,1,1,1,1,1,1,1,1,1,1,1,1,1,1,1,1,1,1,1,1,1,1,1,1,1,1,1,1,1,1,1,1,1,1,1,1,1,1,1,1,1,1,1,1,1,1,1,1,1,1,1,1,1,1,1,1,1,1,1,1,1,1,1,1,1,1,1,1,1,1,1,1,1,1,1,1,1,1,1,1,1,1,1,1,1,1,1,1,1,1,1,1,1,1,1],"alpha":0.5,"intercept":true,"standardize":true,"nlambda":100,"lambda_min_ratio":0.0001,"user_lambda":null,"penalty_factor":[1,1,1,1,1,1,1,1,1,1,1,1,1,1,1,1,1,1,1,1,1,1,1,1,1,1,1,1,1,1,1,1,1,1,1,1,1,1,1,1],"lower_limits":[-0.3,-0.3,-0.3,-0.3,-0.3,-0.3,-0.3,-0.3,-0.3,-0.3,-0.3,-0.3,-0.3,-0.3,-0.3,-0.3,-0.3,-0.3,-0.3,-0.3,-0.3,-0.3,-0.3,-0.3,-0.3,-0.3,-0.3,-0.3,-0.3,-0.3,-0.3,-0.3,-0.3,-0.3,-0.3,-0.3,-0.3,-0.3,-0.3,-0.3],"upper_limits":[0.4,0.4,0.4,0.4,0.4,0.4,0.4,0.4,0.4,0.4,0.4,0.4,0.4,0.4,0.4,0.4,0.4,0.4,0.4,0.4,0.4,0.4,0.4,0.4,0.4,0.4,0.4,0.4,0.4,0.4,0.4,0.4,0.4,0.4,0.4,0.4,0.4,0.4,0.4,0.4],"dfmax":41,"pmax":40,"thresh":1e-07,"maxit":100000,"lmu":13,"lambda":[1.54463659010337,1.40741533263542,1.28238443348329,1.16846093481223,1.06465808577679,0.970076795757024,0.883897846865653,0.805374798274655,0.733827520901891,0.668636306458363,0.609236499831483,0.555113608312608,0.50579884530733],"a0":[0.184866421634767,0.181254148217249,0.177777246514988,0.17211927664206,0.162633998697032,0.15387056368944,0.14488387221102,0.132687207074305,0.124131612068088,0.120705804062094,0.117832925950374,0.116901161634767,0.116901161634767],"beta":[0,0,0,0,0,0,0,0,0,0,0,0,0,0,0,0,0,0,0,0,0,0,0,0,0,0,0,0,0,0,0,0,0,0,0,0,0,0,0,0,0,0,0,0.114402958591244,0,0,0,0,0,0,0,0,0,0,0,0,0,0,0,0,0,0,0,0,0,0,0,0,0,0,0,0,0,0,0,0,0,0,0,0,0,0,0,0.224518610285961,0,0,0,0,0,0,0,0,0,0,0,0,0,0,0,0,0,0,0,0,0,0,0,0,0,0,0,0,0,0,0,0,0,0,0,0,0,0,0,0.325683503829545,0.0711572563238471,0,0,0,0,0,0,0,0,0,0,0,0,0,0,0,0,0,0,0,0,0,0,0,0,0,0,0,0,0,0,0,0,0,0,0,0.0658403359317037,0.0723713297828563,0,0.4,0.147883788335926,0,0,0,0,0,0,0,0,0,0,0,0,0,0,0,0,0,0,0,0,0,0,0,0,0,0,0,0,0,0,0,0,0,0,0,0.148366236407219,0.185833918946624,0,0.4,0.225365948616098,0,0,0,0,0,0,0,0,0,0,0,0,0,0,0,0,0,0,0,0,0,0,0,0,0,0,0,0,0,0,0,0,0,0,0,0.228230437787718,0.294014613394717,0.01570386494766,0.4,0.298834636880742,0,0,0,0,0,0,0,0,0,0,0,0,0,0,0,0,0,0,0,0,0,0,0,0,0,0,0,0,0,0,0,0,0,0,0,0.31262558925543,0.397281836716555,0.118581573192912,0.4,0.367109699826468,0,0,0,0,0,0,0,0,0,0,0,0,0,0,0,0,0,0,0,0,0,0,0,0,0,0,0,0,0,0,0,0,0,0,0,0.392890570491615,0.4,0.2166147452118,0.4,0.4,0,0,0,0,0,0,0,0,0,0,0,0,0,0,0,0,0,0,0,0,0,0,0,0,0,0,0,0,0,0,0,0,0,0,0,0.4,0.4,0.298960498543978,0.4,0.4,0,0,0,0,0,0,0,0,0,0,0,0,0,0,0,0,0,0,0,0,0,0,0,0,0,0,0,0,0,0,0,0,0,0,0,0.4,0.4,0.375255229966618,0.4,0.4,0,0,0,0,0,0,0,0,0,0,0,0,0,0,0,0,0,0,0,0,0,0,0,0,0,0,0,0,0,0,0,0,0,0,0,0.4,0.4,0.4,0.4,0.4,0,0,0,0,0,0,0,0,0,0,0,0,0,0,0,0,0,0,0,0,0,0,0,0,0,0,0,0,0,0,0,0,0,0,0,0.4,0.4,0.4,0.4,0.4,0,0,0,0,0,0,0,0,0,0,0,0,0,0,0,0,0,0,0,0,0,0,0,0,0,0,0,0,0,0,0,0,0,0,0],"dev_ratio":[0,0.0255052916364246,0.0484963400803081,0.0840575229899928,0.135026062280372,0.178267568284981,0.218476261681413,0.264348556373898,0.290042470531659,0.298446471375216,0.304877448012536,0.306855243341699,0.306855243341699],"nulldev":567.843505247835,"npasses":48}
