{"name":"sp_weights","n":200,"p":40,"col_ptr":[0,28,58,85,128,162,187,224,250,283,310,340,372,396,419,452,485,510,544,575,602,628,659,690,720,756,786,810,839,863,889,910,942,975,1002,1036,1071,1099,1128,1156,1200],"row_idx":[7,8,9,11,17,36,42,45,49,55,65,71,80,98,109,113,114,116,121,133,136,147,152,167,170,178,182,188,4,9,10,16,17,19,24,37,43,54,60,65,66,77,78,79,89,95,121,122,125,134,137,147,148,151,153,169,182,199,0,7,13,28,37,46,48,51,57,71,72,75,83,88,91,108,127,131,136,138,142,148,167,177,184,193,198,0,5,8,10,17,18,22,33,34,37,40,41,42,49,50,60,69,78,92,97,99,100,102,105,114,118,119,127,136,138,145,146,148,149,153,165,168,174,178,179,183,192,194,0,4,19,28,29,34,37,43,44,45,54,60,63,69,97,99,102,108,127,137,141,143,146,152,153,156,162,166,178,179,181,186,188,196,6,8,9,21,26,31,45,48,55,62,69,76,78,81,83,96,102,109,137,140,147,148,154,176,181,6,23,30,32,37,44,45,46,55,58,64,68,71,72,76,83,85,86,89,92,103,108,109,114,133,138,140,151,152,169,170,172,178,183,184,189,192,9,12,15,43,56,58,87,94,95,97,102,107,115,119,120,122,124,135,141,146,152,173,178,183,188,192,2,5,10,16,22,27,33,38,39,45,48,53,55,56,68,70,80,95,96,126,146,147,149,153,156,159,160,167,169,173,179,182,191,5,7,10,12,55,58,64,67,72,73,78,81,104,105,111,118,126,130,134,159,161,163,165,168,193,195,197,0,3,4,13,20,25,26,36,37,44,63,74,92,97,106,107,110,114,115,116,121,123,126,134,143,152,153,160,167,184,24,26,41,52,54,61,62,70,76,80,86,87,88,100,112,119,126,130,132,142,143,149,150,151,160,161,172,182,189,190,193,197,5,18,24,39,40,43,44,47,51,54,56,61,62,74,76,87,107,125,148,153,164,166,180,189,2,3,10,15,31,38,57,59,77,114,116,117,129,131,140,142,147,150,161,179,184,187,196,2,8,23,31,32,41,45,46,54,69,86,90,91,94,104,109,116,122,123,128,132,136,142,156,160,161,163,168,171,179,182,184,197,3,7,15,20,36,39,40,54,60,71,79,83,84,88,92,94,102,115,121,128,130,138,141,142,155,159,164,165,170,178,180,184,198,9,14,17,18,27,28,38,42,46,47,52,72,97,98,105,116,121,122,148,149,151,155,159,165,181,6,12,25,29,30,37,41,53,60,61,76,79,81,88,89,96,98,105,115,134,138,139,143,148,158,161,163,164,175,177,178,180,189,198,1,6,19,22,24,30,33,49,57,59,62,63,66,67,97,99,108,115,116,122,128,141,153,161,163,178,180,186,191,195,197,4,6,13,36,43,48,49,63,67,69,71,96,100,110,114,120,124,128,135,148,152,159,165,166,181,187,191,19,20,21,32,35,39,51,54,58,59,65,68,79,106,114,116,120,124,126,143,152,156,157,164,177,180,23,25,29,46,47,56,61,63,67,70,74,76,79,88,103,109,115,123,126,127,133,136,138,150,154,160,164,188,190,193,195,0,24,38,40,44,48,58,70,75,77,83,90,91,102,107,109,120,133,136,150,152,155,156,161,169,176,181,182,193,195,198,6,9,16,19,22,24,25,27,35,44,45,65,75,80,82,88,91,98,109,113,124,126,127,128,166,171,176,181,182,194,2,5,11,12,15,23,28,34,42,43,54,77,80,92,96,103,108,110,116,118,120,121,128,130,142,145,149,151,155,161,170,177,180,183,184,191,1,11,19,22,26,29,40,49,50,62,65,86,104,105,106,109,113,124,126,127,128,136,141,147,159,166,169,173,174,194,0,1,7,13,18,30,34,39,41,45,46,59,66,68,70,89,107,119,131,139,144,160,184,199,6,12,32,34,40,56,57,59,63,74,82,84,88,89,100,102,105,129,133,134,136,151,158,165,167,177,178,189,193,1,17,23,26,38,47,53,54,58,88,89,103,105,108,109,128,137,169,174,179,180,192,197,199,0,16,49,51,57,62,67,74,78,79,88,90,102,103,109,118,122,126,146,152,169,174,180,183,185,196,12,15,49,53,55,66,76,82,89,90,99,110,129,137,157,161,163,170,186,187,188,4,7,27,47,48,50,53,55,64,65,66,71,80,87,101,108,109,111,115,135,136,137,138,140,150,151,153,156,169,173,186,199,3,5,13,23,28,33,35,47,57,69,70,85,87,97,105,110,120,122,129,131,136,139,142,151,152,154,158,163,170,172,193,197,198,12,13,18,25,28,45,51,58,72,74,78,86,87,93,95,103,115,126,137,156,161,169,172,175,186,190,197,5,19,21,27,38,51,54,58,70,75,77,78,81,84,94,98,103,113,117,120,121,125,126,134,144,154,155,157,159,160,174,180,185,197,13,15,22,23,28,31,33,44,47,57,60,64,69,70,71,91,93,104,105,108,110,132,135,137,144,151,152,156,167,169,172,173,177,184,193,5,7,8,18,19,20,28,37,39,52,61,64,68,74,75,82,83,94,99,120,134,138,140,141,144,161,167,199,2,5,7,15,38,40,43,53,54,58,60,61,72,81,82,93,98,111,114,122,150,151,166,172,176,177,180,183,185,0,2,11,12,18,27,30,34,41,47,61,70,91,92,95,102,105,108,116,117,128,134,142,160,171,182,187,194,1,11,19,25,26,27,45,55,57,73,74,76,77,81,82,83,85,87,92,93,96,103,106,107,112,115,116,121,125,133,140,141,147,149,159,161,166,167,176,177,181,185,186,191],"values":[-0.81,0.44,0.36,-0.84,-0.14,-1.8,-1.1,1.3,0.68,2.4,-0.88,1,1.5,-0.068,0.82,1.5,0.79,1.5,-1.3,1.8,-1.2,1.6,-0.53,0.35,0.53,0.043,-1.1,2.3,-0.67,1.1,0.42,0.036,-1.6,1.1,0.64,-0.27,1.2,0.29,1.5,0.24,-0.27,0.66,-0.57,0.46,0.19,0.56,0.12,0.89,-0.029,1.8,1.6,-0.95,-0.48,0.19,-2.1,-0.57,-0.91,-0.51,0.33,2.5,0.96,-0.44,-0.11,0.35,0.28,1.1,2,-0.24,0.057,-0.33,0.58,0.17,-1.3,1,1,1,1.4,0.86,-0.49,0.12,-1.6,0.064,-0.34,-0.9,-0.49,0.97,-0.56,0.71,1.3,1,-0.13,0.22,1,-2.2,-0.76,1.2,-0.2,-0.95,1.6,1.2,0.66,1,0.095,-0.34,-0.39,-0.59,-0.42,-0.35,1.8,-0.1,0.058,1,-0.29,0.28,0.39,0.036,0.72,-0.86,0.36,0.056,0.37,0.57,0.43,-0.85,-2.8,-0.35,0.66,0.77,0.13,-1.9,2.3,0.6,0.47,1.8,0.074,0.32,0.00063,0.24,0.94,0.93,2.1,1.4,-0.44,0.16,0.43,1.1,0.28,-1.3,-0.32,-1.5,0.44,-0.26,3,-0.3,-0.16,0.63,-2,-1.1,1.4,-0.32,0.68,-2.9,0.3,0.11,0.77,-0.046,1.2,0.24,1.4,-0.54,0.31,-0.4,-0.053,-0.58,-0.014,-0.058,1.3,-1.1,-0.75,-1.7,0.093,-0.26,0.35,0.47,-0.83,0.47,0.62,0.14,-0.7,0.85,0.98,-1.3,-0.41,0.74,0.57,-0.017,-2.3,1.2,-0.26,-2.4,-0.67,-0.15,-1.1,1.4,-1.2,-0.73,1.8,0.61,-1.1,0.47,0.92,-0.94,-0.0091,0.37,-0.44,-0.097,-2.1,-0.72,-0.11,-1.7,0.73,1.4,-0.25,0.41,0.74,0.94,-0.67,-0.02,0.93,0.0053,-0.41,-0.69,0.33,0.83,-1.4,-0.017,-1.1,0.83,-0.71,-1,-1.2,-0.23,-1.7,0.14,0.72,-0.65,1.1,-0.83,-0.58,-0.88,-1.3,0.92,-0.031,-0.3,1.1,-1.1,-1.3,-0.019,0.4,-1,-0.2,-1.2,0.29,0.8,1.2,-1.3,-1.5,-0.36,-0.73,0.028,-1.5,0.24,-1.8,0.21,-0.13,0.8,-0.93,0.049,-0.77,-0.33,0.2,0.15,0.89,0.18,0.005,-2,-0.71,-0.3,-0.74,-0.18,0.23,0.057,-1.5,-0.88,-1.3,-0.32,1.7,0.74,-0.74,-1,1.8,-0.73,-0.62,-0.34,1.4,1.2,-0.36,-0.94,-0.54,-0.72,0.56,0.18,1.4,1,0.39,0.69,0.044,0.18,1.4,0.083,1.4,-1,0.51,-0.38,-0.19,-1.4,-0.045,0.17,-2.5,-0.35,0.12,-0.089,1.3,0.044,-1.1,-0.2,-0.51,0.037,-0.15,0.58,-0.42,1.8,1.1,0.76,-1.2,-0.19,-0.086,-1.7,-0.87,1.1,0.48,-0.18,0.65,0.63,0.45,-0.5,-2.3,-1.7,1.3,0.029,-0.96,1.2,1.2,1.4,-0.58,-1.1,0.0035,0.55,0.14,1.8,-1.2,-1.8,-1,0.8,1.1,1.6,-1.7,-0.7,-0.14,-1,-1.4,0.033,-1.3,-2.3,-0.088,1.7,-1.4,-1.2,-0.58,0.23,0.95,-0.27,0.31,-0.28,0.34,0.41,-0.26,0.075,-0.34,-0.44,-0.82,0.6,-0.52,-0.56,0.41,1,-1.9,0.61,0.13,0.6,1.2,-0.49,0.25,-0.33,-1.3,-0.071,-0.079,-0.035,1.6,-0.043,0.41,0.37,-1,-0.48,-0.91,0.54,1.9,0.74,-0.46,1.9,-0.066,0.12,0.56,-0.27,-0.79,0.63,1.3,0.52,-1.3,0.13,1.7,0.71,-1.4,1,0.28,-2.2,0.89,-2.5,-1.5,0.059,-0.67,0.29,0.76,0.29,0.52,-0.22,0.65,-0.67,0.12,-0.2,-0.72,1.2,-0.25,-0.37,1.2,-2.6,-0.63,-1.2,1.2,0.29,1.1,1.6,-0.19,0.49,-1.3,-1.5,1.6,0.17,-0.19,0.12,0.42,0.31,0.66,-0.86,-1.5,-0.56,-1.7,0.78,-0.84,1.7,0.91,1,0.36,-0.69,0.17,0.52,-0.0048,-0.38,0.62,0.7,-0.88,-0.55,0.61,-0.68,-0.21,1.3,-0.7,-0.0089,-0.3,2.2,1.9,1.3,0.63,0.79,0.89,-1.8,-0.26,0.74,-0.45,-0.65,-0.48,1.2,0.71,1,-1.2,0.38,-0.63,0.14,1.2,0.25,-1.3,0.28,0.085,0.4,0.15,-0.6,-1.1,0.26,-0.23,-0.63,0.83,-0.47,-0.1,-0.16,0.7,0.48,-0.57,-0.89,-0.79,-1.3,-1.4,1.1,0.79,0.32,-0.015,-1.2,-0.14,0.019,0.67,-0.27,-0.9,-1.1,-0.55,0.88,-0.68,-0.15,0.19,1,0.15,0.042,-0.12,-1.1,-3.4,-0.0066,0.45,-0.58,1,-0.2,2.1,-0.82,0.64,-0.67,-1,-0.49,-0.77,-0.36,1.6,0.06,-0.0041,-0.11,-0.25,0.55,-1.4,1.1,1.8,-0.92,-0.46,1.6,-1,0.34,0.27,1.3,0.66,-1.3,0.81,-0.24,1.2,2.2,0.22,-0.98,1.5,0.4,-2.1,-1.3,-1.6,-0.91,-0.35,-2.4,0.27,-1.9,0.32,2.1,0.84,-1.4,-0.83,-0.45,0.31,0.88,1.8,-0.059,-0.21,0.23,0.37,0.17,-1.3,0.39,0.97,-1.6,1.3,-1.1,1.2,1,0.76,1.9,0.89,0.52,-0.29,-0.68,0.46,-0.99,1.1,1.8,-0.76,0.23,1.4,0.28,0.1,-1.2,0.16,-1.3,1,-0.28,0.48,-0.06,0.54,-0.14,1.2,-0.94,-1.1,-0.11,0.8,0.16,-0.56,-1.2,0.17,-0.14,-0.12,-0.71,-0.11,-0.54,0.088,0.1,-1.1,-0.57,-0.39,0.27,-0.77,-0.42,-0.22,-0.9,-0.96,-0.2,0.34,0.34,0.92,0.67,0.022,-1.1,0.63,0.6,-0.025,-1.1,-1.1,-1.6,0.16,-0.36,-0.73,-0.28,1.9,-2.1,0.91,0.78,-1.3,0.35,-0.54,0.16,0.7,-0.23,0.71,-0.79,-2.6,0.33,-1.2,0.4,0.5,1.8,0.05,-0.18,0.062,1.5,0.076,-0.16,1.3,-2.7,-1,1.4,-0.12,-2.2,1.9,0.079,-0.68,-1.3,1.8,1.1,1.2,0.47,-0.81,-0.11,0.1,-0.054,0.93,0.59,2.8,-0.67,0.8,-1.7,-0.77,0.41,1.9,-1.4,0.11,-0.74,-0.43,-0.024,-0.59,-1.3,0.41,1.1,-2,-0.11,0.79,-3,0.98,1.2,0.08,-0.86,0.52,0.12,-1.6,0.26,0.73,-0.038,-0.66,0.85,0.17,-0.63,0.19,1.2,1.4,-1.3,-1.5,-0.37,1.2,-0.015,0.71,0.37,2.3,-0.16,0.64,1.1,2.2,-0.75,0.79,1.4,-0.38,0.058,-0.15,-1.4,0.019,-0.7,-1.9,-0.77,2.1,-1.2,-0.57,-0.17,0.79,-1.2,-1.2,-1.6,1.2,0.35,-0.71,-0.15,-2.3,0.79,-0.067,-0.83,0.07,-0.71,-0.54,-1,0.44,0.77,1.5,0.13,-1.6,0.55,1.2,-0.39,0.54,1.2,-1.4,-1.7,-1.5,1.4,2,-2.4,0.64,-0.33,1.7,0.45,0.11,0.98,-0.31,-0.98,0.93,-0.25,-0.59,-1.2,2.7,-0.19,0.98,-0.75,0.58,-1.4,0.93,-0.97,1,-0.061,0.8,-1.3,-0.38,-1,0.7,0.067,-0.13,0.35,0.69,0.53,0.33,-0.74,-0.068,-1.2,-1.9,-0.44,-0.62,0.34,-0.65,0.014,-0.22,0.33,-2.3,-0.81,-1,0.26,0.055,0.0087,0.35,-2,0.13,-0.97,-1,0.53,-0.91,1,-0.56,0.85,0.35,-0.83,0.14,0.95,-0.038,-0.71,-0.47,-0.48,0.15,-1.3,-0.15,-0.56,-0.67,0.27,0.14,-1.3,-0.46,0.3,0.79,-0.44,0.32,1.1,0.15,0.48,2.5,-0.59,-0.58,-0.21,-0.18,-1.1,1.3,-1.6,0.37,-0.55,-2,-1.1,0.12,1.6,0.93,0.51,-0.95,-0.8,-1.2,1.2,0.073,-0.29,-0.28,0.87,2.1,-0.67,-0.4,0.39,0.047,1.4,1.1,0.34,-0.34,1,-0.66,-1.3,-0.49,-0.87,0.87,-0.044,-0.54,0.23,0.25,-0.32,-0.94,1.3,1.6,1.4,-0.97,-0.99,0.59,0.37,0.7,0.45,-1.1,0.42,1.4,2,-0.14,-0.3,-0.079,-0.19,1.2,-0.74,0.27,0.39,-0.41,0.84,0.84,-1.6,0.38,-0.37,-0.29,0.063,-1,-0.66,0.58,0.73,0.34,-0.58,0.12,-0.99,0.11,0.98,-0.27,-0.64,-0.27,0.75,0.58,-0.43,0.1,0.53,0.75,-1,-0.65,-1.4,1,-0.17,-0.24,1.4,-1.1,0.34,0.44,0.77,-1.3,1.4,-0.56,2.1,1.6,0.3,-1.8,0.18,-0.77,-2.4,-0.24,-0.86,2.6,0.32,-0.0052,1.1,1.2,-1.8,0.53,0.09,-2.5,0.95,-0.14,-0.15,1.3,2,-0.023,-1.3,-0.21,0.46,-0.51,-2,-1.8,-0.42,0.078,1.1,0.56,-0.71,-0.6,-1.1,-0.49,2.7,-0.056,-0.41,-0.11,0.62,1.3,1.3,-0.41,0.36,0.79,-0.12,-0.32,1.1,1.1,-0.67,-0.55,-2.4,0.16,-0.4,-1.1,-0.081,-2.3,0.41,-1.9,1.6,0.63,0.38,-0.9,-0.81,-0.16,0.75,-1.9,0.85,0.39,0.67,0.31,0.17,0.19,1.7,-2.1,0.89,-1.4,-0.67,-0.15,0.16,-0.39,0.91,0.017,-0.29,1.1,1.4,-0.52,0.62,1.9,-1.8,1.3,-0.79,2.4,0.4,0.12,0.79,2,0.36,-0.76,1.1,-0.74,2.7,0.83,0.6,-0.12,2.3,1,-0.75,1.2,-1,-1.2,-0.37,0.15,-0.42,0.37,0.62,0.049,0.0044,1.1,0.49,-0.35,-0.28,-2.7,0.96,0.9,1,-0.86,-2.5,-0.7,0.53,0.11,0.064,0.19,1.3,0.2,0.18,-0.49,-1.8,0.37,0.41,-0.54,0.91,0.36,-1.5,-1.5,0.2,-1.6,0.55,0.4,1.3,0.61,1.4,-0.28,0.28,0.04,1.6,0.72,0.9],"y":[2.60162697339748,0.828182094437727,-1.90013381883557,0.638220611560677,-4.76069752867352,-0.0258466129049434,-1.32608752270276,3.35189407894425,2.41686532565584,2.2829689443305,2.99354726194976,-0.44432525355719,-0.454168808717813,0.616206559246188,0.461747310911523,-0.0127876504062999,1.37620364420789,0.350318422123751,0.764876569333146,4.62349957171844,0.00715619880919131,-0.136670863815558,0.238718881381043,0.435393769248219,1.24621095699893,-0.450724136902661,-0.0811371069499021,0.710343021752631,-0.0790617778500843,-0.176725603810034,1.01767059470481,-0.456824223499966,0.700053883263406,2.32450007871222,-0.675986262498235,-0.588162684096794,-2.4378368802662,-1.05593519445069,-0.0703584623946044,-0.518372475229525,3.71919943391078,-0.0897395977501402,-2.80054716568529,2.35120471195897,-0.898774278958956,1.3215579269916,1.99985136726372,0.502605571600589,0.328327259458276,3.7218590694454,0.861862858984084,-0.594453201640344,0.188673985026554,-0.319482718440149,-0.0715582740455933,1.99997174257512,0.0700184584200274,2.78682973372965,-0.232917127733573,1.45256170926289,3.62886407435091,0.476606826425276,0.693973120637904,4.36356230831415,-1.11120052474898,-0.572372796823786,-0.4252253555737,0.684330500816609,0.936565665656989,3.0008522814101,-0.578311425595842,2.83391896493003,0.332156232187456,0.638751395873405,0.781008849544868,0.213393003012472,-0.0513684675243074,3.563325639332,-1.93982856845622,0.777671197136914,1.82585946740486,0.0946369021354068,-0.465496190806697,0.661731945214367,0.733755750122412,0.265648235545061,-0.52712526042489,0.66210274853752,-1.98532764264299,-0.488100643331814,-1.99836587613614,-2.89334110635551,0.534844553377294,-2.17570256311914,-2.47096202583121,2.59332799706189,0.611601197909781,-2.32108999724307,0.655706795086152,-1.57670326237855,-0.640953575454871,0.265161924419002,0.894423769092493,0.364155826771142,-0.229316328965775,3.63390613548822,1.24883253551157,-1.43488373409614,2.37387365708161,0.618701223863607,-0.852340184396408,-1.95452385860411,1.68189034983409,1.55698709593779,2.68567410913144,-1.3408609131139,3.06887197513914,-0.915902784640514,-0.524469606903688,0.657369136369048,-1.00761670927534,-1.76079069713698,2.16908305073598,-0.878268498085476,-1.31215798687909,1.22988529249977,-0.593791804740384,0.331506975754227,-0.00366497105542746,-0.73167318607284,-0.944537837805891,1.58438829981928,1.21454632714873,1.6097084284641,1.24538661391552,-0.0463660326422857,-0.00570012763238859,0.367111140298424,3.64928908846648,-0.928108071823118,-0.330081535988646,1.14652121264265,0.164004936707507,-4.54768169135193,-0.216008960590693,-2.2778983275898,1.73526909578345,1.00292843414257,-2.25485434417237,1.92886604405002,0.646188186007692,0.854529091777787,-2.44296846084781,-1.79427651632487,-0.205428761436417,1.39577228551632,-1.25417539040799,-0.243173557407196,0.86216225767656,-0.441077146369484,0.469549431720864,-0.323439402340549,-0.75541482836799,-0.116476061438122,0.26855708561163,0.814427492205416,-2.42768394550179,-2.44693169294693,-0.112632003971765,-2.48899982798571,-1.48133958042429,0.448040166468938,2.12931932944684,-0.0852474863176408,1.41671801535193,-0.418322506050631,0.198457710626493,-0.291084750585723,-3.6708786793537,-5.17971021602014,-0.753706248088731,2.30937619399824,-4.04886912773362,0.12569959369083,-0.996824130722321,-0.496259233613017,-0.0306235632672111,1.56381257121006,4.76614971707933,-0.189359182435493,0.0201396799435682,0.668669788099991,1.2766888168694,-1.57118003511508,1.69357766908764,-0.440800771218002,-2.22089909917835,1.19699587738274,-1.3221344281993,-1.21260820372868],"weights":[1.39004015112296,0.852036293386482,1.58155776767526,1.99921503574587,0.525573339802213,0.994046724308282,1.51167088227812,1.17832171337213,0.337277255696245,1.1755299406359,0.377402918110602,1.42734550829045,0.938401313219219,1.2224673645338,0.502614261256531,0.940097792353481,1.80156552158296,0.776160995825194,1.08851863010786,0.827076857304201,1.39793804909568,0.805970869655721,0.564001027308404,1.13441048034001,0.942073130211793,0.467584825213999,1.1970698289806,1.56283554569818,0.571526993322186,1.25620471474249,0.929054203885607,0.67790424018167,1.55117729033809,1.21743683109526,1.82217467837036,0.835377351590432,1.84245715956204,0.546491281478666,0.760386614501476,1.71217702061404,1.99395037312061,0.396216543787159,0.731684405775741,1.10531491276342,1.78960161854047,1.64713716343977,1.07825180110522,0.478028796357103,1.53434764586855,1.20253541176207,0.963674774742685,0.400385271199048,1.52308616680093,1.61071993657388,1.0225016605109,0.303464025934227,1.53791513352189,0.917910711257719,0.412084843404591,1.7669629154494,0.480567995854653,0.987915715691634,1.5996381977573,1.43428206853569,0.708121579210274,0.892890805378556,0.635469695786014,0.738188943453133,1.47776075336151,1.72944461097941,1.71999845679384,0.946654992434196,1.51405468713492,1.82910644493531,1.85404697544873,0.939264124608599,0.55533051402308,1.50344244914595,0.392077900469303,1.44175125213806,1.32118893261068,1.75092385576572,0.838024322409183,1.85564777769614,0.644434581650421,0.442028886452317,0.388442846108228,1.75755241047591,1.64650954953395,1.17476728910115,1.19018799094483,1.68616635233629,0.731805545254611,1.15389071255922,1.14938458779361,1.66059755957685,1.33542262841947,1.8868342357222,0.574405471864156,0.96056705925148,0.586326684197411,1.4097926141927,0.887177453725599,1.14561710143462,1.63040514562745,1.33279171253089,0.65442966981791,1.52914204790723,1.93484656414948,0.482833900558762,0.428231907938607,1.25680426161271,0.583367172232829,0.700545910280198,0.433439505146816,0.941302485251799,1.51333228335716,0.661611922900192,0.643175915814936,0.627176125440747,1.87860792849679,1.32210761683527,0.59595499902498,1.89453463573009,0.898963049752638,1.73480539380107,1.35011771842837,0.471045202156529,1.20769952426199,1.6210654676659,1.21165487689432,1.19397873086855,0.649290857627057,0.327461360767484,1.92114224326797,1.43894819915295,0.3692909051897,0.478793142363429,1.28301861439832,0.996862528775819,1.83008379563689,1.33794082414825,1.38215848777909,1.87592312714551,0.533572293748148,1.17935993839055,1.53854447079357,1.2449434624752,1.71820159298368,1.18712774401065,0.765017061075196,1.2009153081337,1.24038553263526,1.28183427415788,1.69227664533537,1.96438895489555,1.95733007604722,1.16278512764256,1.93827562800143,1.80878111827187,0.323753284220584,1.4860521447612,1.45597339933738,0.837256372929551,0.652389526041225,1.95885271609295,1.56246075083036,1.42676586641464,0.776496554235928,0.672734408592805,1.37211943913717,1.83361806476023,0.801191149675287,1.80695300509688,0.514815539936535,1.57850153150503,1.01708600744605,1.78601972847246,1.40742347417399,1.40864799804986,1.34981313904282,1.95368712563068,0.504616876109503,1.70527618003543,1.79036762220785,1.81077020426746,1.97184963368345,1.59173217178322,1.04824338990729,1.73196979556233,1.08650365008507,1.46810754828621,1.67792580102105,0.805890312395059,0.871160016465001,1.46417950391769,1.7685116347624,1.33318992245477,0.782009854540229,1.16372750399169],"alpha":0.6,"intercept":true,"standardize":true,"nlambda":100,"lambda_min_ratio":0.0001,"user_lambda":null,"penalty_factor":[1,1,1,1,1,1,1,1,1,1,1,1,1,1,1,1,1,1,1,1,1,1,1,1,1,1,1,1,1,1,1,1,1,1,1,1,1,1,1,1],"lower_limits":["-Inf","-Inf","-Inf","-Inf","-Inf","-Inf","-Inf","-Inf","-Inf","-Inf","-Inf","-Inf","-Inf","-Inf","-Inf","-Inf","-Inf","-Inf","-Inf","-Inf","-Inf","-Inf","-Inf","-Inf","-Inf","-Inf","-Inf","-Inf","-Inf","-Inf","-Inf","-Inf","-Inf","-Inf","-Inf","-Inf","-Inf","-Inf","-Inf","-Inf"],"upper_limits":["Inf","Inf","Inf","Inf","Inf","Inf","Inf","Inf","Inf","Inf","Inf","Inf","Inf","Inf","Inf","Inf","Inf","Inf","Inf","Inf","Inf","Inf","Inf","Inf","Inf","Inf","Inf","Inf","Inf","Inf","Inf","Inf","Inf","Inf","Inf","Inf","Inf","Inf","Inf","Inf"],"dfmax":41,"pmax":40,"thresh":1e-07,"maxit":100000,"lmu":70,"lambda":[1.33256610024837,1.21418460060837,1.10631978712331,1.00803738638038,0.918486123241798,0.836890347506828,0.762543315600771,0.694801069100242,0.633076857073365,0.576836053923899,0.525591528720083,0.478899425899544,0.436355320804754,0.397590716750118,0.36226985327997,0.330086797972132,0.300762796597624,0.274043858684894,0.249698557575851,0.227516025918875,0.207304129236685,0.18888780174942,0.172107530038597,0.156817971418198,0.142886695045845,0.130193034870206,0.118627044479376,0.108088544797663,0.0984862563823515,0.0897370088048401,0.081765020268178,0.0745012412213919,0.0678827562853084,0.0618522393096376,0.0563574568412842,0.0513508157031643,0.0467889507648737,0.0426323493346742,0.0388450089194601,0.0353941253883861,0.032249808839179,0.029384824706104,0.0267743578671843,0.0243957977074861,0.0222285422767889,0.0202538198453487,0.0184545263121545,0.0168150770573885,0.0153212719559044,0.0139601723825368,0.0127199891439196,0.0115899803661329,0.01056035845373,0.00962220531426818,0.0087673951140577,0.00798852389607829,0.00727884545044514,0.00663221288196628,0.00604302536867705,0.0055061796501996,0.00501702582574289,0.00457132707888648,0.00416522298030357,0.00379519605056898,0.00345804129343505,0.00315083843568745,0.00287092663313559,0.00261588142365319,0.00238349372764715,0.00217175071406696],"a0":[0.153076230787559,0.150514848659859,0.148082399102982,0.143220788715898,0.138248466605481,0.132659293096483,0.120733583101317,0.107709770025135,0.0955077970950215,0.0841000654831368,0.0734560499440855,0.0635430285435714,0.0543267435476106,0.0457719900430812,0.0379020935678465,0.0307856092401526,0.0238962470305731,0.0174321591113795,0.011905848587013,0.00725020896884276,0.0034671246337897,-0.000350915129618962,-0.00387709650279169,-0.00714705920382278,-0.0105519118647891,-0.0143243153349705,-0.0186419268709304,-0.0238868736764351,-0.0281080744365627,-0.0320811407162294,-0.0356533557786115,-0.04065100411205,-0.0455684841671024,-0.0510217687487182,-0.0560546599994513,-0.0606579786731843,-0.0646608019145444,-0.0682748278562486,-0.0715796245304765,-0.074267768591549,-0.0766961841884095,-0.0790488226927912,-0.0814589923006419,-0.0836665611978643,-0.0856366904517085,-0.0873651456935384,-0.0889612447564744,-0.0903579002053896,-0.0916292290195829,-0.0928375095262839,-0.0939152783972124,-0.0949126816247582,-0.0958278730560075,-0.0966390405560962,-0.0973763581341408,-0.0980488383985749,-0.0986458339167778,-0.0992051657710344,-0.0997162693198899,-0.100182369407174,-0.100607312398121,-0.100957187846559,-0.101306142837831,-0.101630170813867,-0.101926744820686,-0.102197330432974,-0.102444017097519,-0.10266886959833,-0.102873806181965,-0.103060584320794],"beta":[0,0,0,0,0,0,0,0,0,0,0,0,0,0,0,0,0,0,0,0,0,0,0,0,0,0,0,0,0,0,0,0,0,0,0,0,0,0,0,0,0,0,0,0.125401053737739,0,0,0,0,0,0,0,0,0,0,0,0,0,0,0,0,0,0,0,0,0,0,0,0,0,0,0,0,0,0,0,0,0,0,0,0,0,0,0,0.244489780990712,0,0,0,0,0,0,0,0,0,0,0,0,0,0,0,0,0,0,0,0,0,0,0,0,0,0,0,0,0,0,0,0,0,0,0,0,0,0,0,0.353526572265618,0.071558961655104,0,0,0,0,0,0,0,0,0,0,0,0,0,0,0,0,0,0,0,0,0,0,0,0,0,0,0,0,0,0,0,0,0,0,0,0,0,0,0.455793329312444,0.14988119992059,0,0,0,0,0,0,0,0,0,0,0,0,0,0,0,0,0,0,0,0,0,0,0,0,0,0,0,0,0,0,0,0,0,0,0,0.0327014679756047,0,0,0.551004419833715,0.222829364085662,0,0,0,0,0,0,0,0,0,0,0,0,0,0,0,0,0,0,0,0,0,0,0,0,0,0,0,0,0,0,0,0,0,0,0,0.133298784659352,0.0733003978003853,0.104824078129419,0.6369156282857,0.291855665567227,0,0,0,0,0,0,0,0,0,0,0,0,0,0,0,0,0,0,0,0,0,0,0,0,0,0,0,0,0,0,0,0,0,0,0,0.23070272869928,0.197315228955491,0.218143905661754,0.716812120700274,0.359505253194859,0,0,0,0,0,0,0,0,0,0,0,0,0,0,0,0,0,0,0,0,0,0,0,0,0,0,0,0,0,0,0,0,0,0,0,0.322057130907635,0.31373802697315,0.324381267730077,0.791330801430218,0.422801181730414,0,0,0,0,0,0,0,0,0,0,0,0,0,0,0,0,0,0,0,0,0,0,0,0,0,0,0,0,0,0,0,0,0,0,0,0.407550129672137,0.422786067687194,0.423763327851665,0.860704941125716,0.48190340951611,0,0,0,0,0,0,0,0,0,0,0,0,0,0,0,0,0,0,0,0,0,0,0,0,0,0,0,0,0,0,0,0,0,0,0,0.487393857194274,0.524709697559986,0.516544272085496,0.925178571549003,0.536985054587239,0,0,0,0,0,0,0,0,0,0,0,0,0,0,0,0,0,0,0,0,0,0,0,0,0,0,0,0,0,0,0,0,0,0,0,0.561818818177632,0.619785481093504,0.602998782861159,0.985002143428874,0.588228743089876,0,0,0,0,0,0,0,0,0,0,0,0,0,0,0,0,0,0,0,0,0,0,0,0,0,0,0,0,0,0,0,0,0,0,0,0.63106886160244,0.70830954597929,0.683416224385242,1.04042884786995,0.635823303454079,0,0,0,0,0,0,0,0,0,0,0,0,0,0,0,0,0,0,0,0,0,0,0,0,0,0,0,0,0,0,0,0,0,0,0,0.695396663399289,0.790591571368065,0.758095436854366,1.09171147047016,0.679960852765819,0,0,0,0,0,0,0,0,0,0,0,0,0,0,0,0,0,0,0,0,0,0,0,0,0,0,0,0,0,0,0,0,0,0,0,0.755488296913728,0.866441079612433,0.826863958020787,1.13906062758508,0.720062536471615,0,0,0,0,0,0.0127086197487715,0,0,0,0,0,0,0,0,0,0,0,0,0,0,0,0,0,0,0,0,0,0,0,0,0,0,0,0,0,0.812350786396425,0.935243108926982,0.889196738389322,1.18266399761666,0.754953163757748,0,0,0,0,0,0.0601156507570481,0,0,0,0,0,0,0,0,0,0,0,0,0,0,0,0,0,0,0,0,0,0,0,0,0,0,0,0,0,0.863905815662718,0.998222141215026,0.945636314106733,1.22311733148512,0.786006585008485,0,0,0,0,0,0.102243489149255,0,0,0,0,0.0187354662458018,0,0,0,0,-0.0208144211815423,0,0,0,0,0,0,0,0,0,0,0,0,0,0,0,0,0,0,0,0.912695568769076,1.05675894948877,0.996274313332098,1.2604604260789,0.814521604573849,0,0,0,0,0,0.141862190118192,0,0,0,0,0.0584107018500717,0,0,0,0,-0.0430024074885585,0,0,0,0,0,0,0,0,0,0,0,0,0,0,0,0,0,0,0,0.957380527762829,1.111106439491,1.04261522903158,1.29447937940805,0.84041573142552,0,0,0,0,0,0.175933486216304,0,0,0,0,0.0933170088985246,0,-0.0136811212706769,0,0,-0.0643511824610269,0,0,0,0,0,0,0,0,0,0,0,0,0,0,0,0,0,0,0,0.998227485230485,1.16154808997119,1.08494954972842,1.32540356636988,0.863871941693902,0,0,0,0,0,0.204826740030743,0,0,0,0,0.12376060187493,0,-0.0400117625021513,0,0,-0.084944850626896,0,0,0,0,0,0,0,0,0,0,0,0,0,0,0,0,0,0,0,1.03489124975172,1.20832785104394,1.12262263778383,1.35382874872047,0.884930214103699,0,0,0,0,0,0.233251402158502,0.023239224042237,0,0,0,0.152897663886297,0,-0.0654653780744568,0,0,-0.102366184135092,0,0,0,0,0,0,0,0,0,0,0,0,0,0,0,0,0,0,0,1.068235989338,1.24988120152993,1.1534452558928,1.37985894488721,0.902641804455343,0,0,0,0,0,0.26018114051597,0.0463597419520658,0,0,0,0.178323811226425,0,-0.0882499567939121,-0.0201746975186695,0,-0.119029326071522,0,0,0,0,0,0,0,0,0,0,0.0179411099186533,0,0,0,0,0,0,0,0,1.09791538579805,1.29211251136544,1.18135869266325,1.40404444166423,0.919195301703525,0,0,0,0,0,0.283095385015681,0.0717223908727092,0,0,0,0.198098526747126,0,-0.109779375736296,-0.0390621896224471,0,-0.13438787141712,0,0,0,0,0,0,0,0,0,0,0.0368502978656357,0,0,0.0326617401862313,0,0,0,0,0,1.12471221788296,1.33295983192696,1.20704520755528,1.42637367310416,0.934527557586568,0,0,0,0,0,0.303138992515842,0.0970325043529077,0,0,0,0.214509491252489,0,-0.129969768145204,-0.0565052490838835,0,-0.148415369097208,0,0,0,0,0,0,0,0,0,0,0.0541363441735433,0,0,0.0783708791796925,0,0,0,0,0,1.14909372429802,1.37006172754641,1.23030418076717,1.44676558306587,0.948417793926129,0,0,0,0,0,0.323129516228002,0.117996813220365,0,0,0,0.230578644899599,0,-0.149396615420651,-0.0724174091591256,0,-0.160690095260342,0.0101765098838971,0,0,0,0,0,0,0,0,0,0.0683646271510366,0,0,0.118789069398127,0,0,0,0,0,1.17100575364355,1.4043521855065,1.25118544681763,1.46499725690465,0.960082074899781,0,0,-0.0207923909889605,0,0,0.344403665682949,0.136338168848635,0,0,0,0.247131859582204,0,-0.165823070556625,-0.0859051747876403,0,-0.170727863177827,0.0243609693459272,0,0,0,0,0,0,0,0,0,0.0822756507896472,0,0,0.155753345628293,0,0,0,0,0,1.19152855497838,1.43633719963601,1.26871503884182,1.48283629395802,0.969694735157117,0,0,-0.0423495398216317,0,0,0.366673660834213,0.154339308400913,0,0,0,0.262783467573073,0,-0.180450859157438,-0.0978713514351163,0,-0.178999920116191,0.040431904046798,0,0,0,0,0.0113500637184134,0,0,0,0,0.0941754617971445,0,0,0.188725810563113,0,0,0,0.00594735942975543,0,1.21299948370659,1.46686518576177,1.28347841376157,1.49953236133692,0.975657266146196,0,0.000909120745721079,-0.0600860818510832,0,0,0.390558885890669,0.170921317394253,0,0,0,0.279169303021992,0.0171733222043326,-0.192463503378554,-0.108258726429509,0,-0.186213778751797,0.0607273628437048,0,0,0,0,0.0381729850025952,0,0,0,0.00995599110268069,0.103429072561772,0,0,0.218584560011884,0,0,0,0.021768831824473,0,1.23444282670546,1.49471946425755,1.29891752148867,1.5132772233076,0.980326842727028,0,0.0164375160971852,-0.0736100399882035,0,0,0.411411669550291,0.18595043649903,0,0,0,0.296549003335724,0.039258343852609,-0.202892706434323,-0.117662702848646,0,-0.192942369340986,0.0789518929959048,0,0,0,0,0.0612726016009705,0,0,0,0.0276465606712476,0.113150708637593,0,0,0.24686898075066,0,0,0,0.0359401960997432,0,1.2525119768795,1.52162620598953,1.3110018851922,1.52521209083059,0.985360376999896,0,0.0302023160969529,-0.0849794202628032,0,0,0.430506928571054,0.199768841064028,0,0,0,0.313852033940651,0.0596988726172391,-0.214235469679947,-0.127563740757497,0,-0.199302027976633,0.0958030189328045,0,0,0,-0.0143339941934999,0.0819596883074714,0,0,0,0.0432706232672072,0.12026612525131,0,0,0.272629297093045,0,0,0,0.0496515722036562,-0.00667040764707461,1.26805003122587,1.546692193757,1.32073228112369,1.53605592333105,0.99011478329316,0,0.0425761257644891,-0.0953924202641323,0,0,0.447956122978605,0.212809332330602,0,0,0,0.329645759458333,0.0785407124226822,-0.22515986473983,-0.137157634929178,0,-0.205203452700265,0.11108283699688,0,0,0,-0.0293428992831664,0.100693382208396,-0.00107995796579501,0,0,0.057308972107807,0.126950332116447,0,0,0.296767085048928,0,0,0,0.0623791622485249,-0.0163872465304763,1.28733896694966,1.57014263516963,1.32847699470131,1.54989486313453,0.994585297765199,0,0.0571442195818708,-0.10651729470475,0,0,0.464593180621591,0.221819095828433,0,0,0,0.345572226143464,0.0962319302651037,-0.244746980857729,-0.143599293812007,0.0201951479387896,-0.210014333362767,0.124307877869058,0,0,0,-0.0424542042637957,0.117322196108253,-0.0189219176954424,0,0,0.068739464416512,0.133088601979114,0,0.0119748242143934,0.319420590359169,0,0,0,0.0762592758546097,-0.0267530888521833,1.30586650779072,1.59187604748633,1.33602647097636,1.5625486770684,0.998851356195643,0,0.0705589316923051,-0.116437396808828,0,0,0.48040582483196,0.229595009134555,0,0,0,0.360269218258588,0.112918055810954,-0.262192111832836,-0.149242576977043,0.0403473564280109,-0.214131976623345,0.136559929313731,-0.00353509376430478,0,0,-0.0544332791267606,0.133047701902326,-0.0351973808584747,0,0,0.0792826928835665,0.138596401619859,0,0.0259293241828827,0.340447867544225,0,0,0,0.0892287806139224,-0.0360228161164869,1.32608998781365,1.61310557627886,1.3446792552071,1.57583944466224,1.00300800702512,-0.0113958591259147,0.0828890671399071,-0.1235873692515,0,0,0.495866059887445,0.237337324207902,0,0,0,0.373044995285979,0.1316208600548,-0.276390467106636,-0.155609394735085,0.0602188306656769,-0.218414797056592,0.146869004823819,-0.0304579434668696,0,0,-0.0645314032635106,0.149977407537975,-0.0515439005832421,0,0,0.0903295893197185,0.142475063188375,-0.010339440498876,0.0388979035148794,0.366155529769335,0,0,0,0.101705119178101,-0.0418873329199591,1.34502359472915,1.63295960094355,1.3529257034255,1.58901635692498,1.00696175115675,-0.0258120101049622,0.0936627323220764,-0.129319560042554,0,0,0.509606790040017,0.244955558352233,0,0,0,0.384014337783479,0.149708209619955,-0.289372973345902,-0.161408039290175,0.0785650405005478,-0.222552923998208,0.156760920000388,-0.0551417906536383,0,0,-0.0732173558590072,0.165682183615117,-0.0668697680814206,0,0,0.0999983066052139,0.145938486821387,-0.0255164695583433,0.0503193987810554,0.391840790832678,0,0,0,0.113388731550936,-0.0467754963305782,1.36234898797619,1.65113752972473,1.360466585554,1.60107500602641,1.01057276345702,-0.0389984785704202,0.103526192580407,-0.134497194435088,0,0,0.522121475407379,0.251913007415392,0,0,0,0.394023804230095,0.166264992159445,-0.30128808439249,-0.16670092492799,0.0953690522617272,-0.226331538965193,0.165799190341427,-0.0777242528310307,0,0,-0.0811594759597524,0.180041884031987,-0.0809034639460297,0,0,0.108823006079131,0.149069965824284,-0.0394107788972747,0.0607568798106994,0.415355161749609,0,0,0,0.124085464243072,-0.0512316427576729,1.37801715631067,1.66749251302859,1.36735943340952,1.61142509369542,1.01369814961376,-0.0513138687019476,0.112933951020034,-0.138904290304142,0,0,0.533557769082326,0.258344401637919,0,0,0.00412332089154031,0.403614683319758,0.181799278175507,-0.312500352222349,-0.171718016247235,0.110283819810443,-0.22988287903962,0.173934076820001,-0.0980578803318637,0,0,-0.0888002449034895,0.192493202297243,-0.0935556507131442,0,0,0.117206814373017,0.151581517332581,-0.0521130474311757,0.0709547082728499,0.436626483506089,0,0,0,0.133332296468218,-0.0553767895567134,1.39231403223425,1.68226150711807,1.37371110111916,1.62062702803046,1.01651644986897,-0.062561986568904,0.121685560321014,-0.143022842358787,0,0,0.544063686700072,0.264193488683991,0,0,0.00853888718003322,0.412529918066785,0.196008095663395,-0.322601630310087,-0.176346551236309,0.123755664906823,-0.233123231743333,0.18124359152423,-0.116561082744656,0,0,-0.0958059952726935,0.203726693222603,-0.10503309010989,0,0,0.124934912082412,0.153890361557926,-0.063615537413368,0.0804025129834445,0.455998183729924,0,0,0,0.141638696498377,-0.0591533719101793,1.40539710807247,1.69583486675402,1.37948367935086,1.62912922683908,1.01909122733459,-0.0728640889761928,0.129625319649415,-0.146707772822383,0,0,0.553635892844351,0.269555459082188,0,0,0.0124515590343898,0.420621044989696,0.20901742849526,-0.331909871251411,-0.180552914285338,0.136135896427143,-0.236081078010103,0.187969458741065,-0.133510528048121,0.000451213157324959,0,-0.102163276208234,0.21403334538233,-0.115591226311233,0,0,0.131977558073037,0.155943932906463,-0.0741813731423834,0.0889947032162878,0.473736065964871,0,0,0,0.149250633262391,-0.0625865099960974,1.41871735893804,1.70796628379873,1.38608253037709,1.63651494760097,1.02135181949003,-0.0821943226260314,0.137979470079093,-0.14955689462945,0,0,0.561503242219135,0.275488475456968,0,0,0.0164797422403653,0.42758285467928,0.222557142601118,-0.339401584902159,-0.183737720444455,0.147751500164742,-0.23949124521471,0.19209984125821,-0.150404939746163,0.0104858178749728,0,-0.107026494319111,0.223395056745703,-0.125548113161398,0,0,0.139098482039241,0.158494324135709,-0.0836790894997889,0.0969124428343817,0.490465272130693,0.000420663614563351,0,-0.00624225337538048,0.15573986465108,-0.0645816694537215,1.43127479199096,1.71905457384389,1.39514599194141,1.64304016162793,1.02278044178098,-0.090133765668594,0.146485875020697,-0.152019919036378,0,0,0.568746522403462,0.280351343881393,0,0,0.0198584043143044,0.433631305884319,0.234491532390179,-0.346944148514536,-0.187234129732466,0.158858248142629,-0.24299076917555,0.19568497640951,-0.166229955306106,0.0196224123891874,0,-0.11238030763866,0.231094602685416,-0.134276825719903,0,0,0.145497521811208,0.158221838708598,-0.0950136489282538,0.103769329269897,0.506127694683204,0.00732163107096258,0,-0.0128078606528148,0.161752007660472,-0.066455661043476,1.44285309837461,1.72915127352181,1.40376577359059,1.64936542214064,1.02406289338818,-0.0974382580054588,0.154299377579668,-0.153991126676223,0,-0.00289428334725569,0.574900943249199,0.284933219496401,0,0,0.0225572400309506,0.438922089015944,0.245514505718761,-0.354524336343493,-0.190458845433343,0.169539301962698,-0.246282537531118,0.199146725312281,-0.180602447095649,0.0278004923913904,0,-0.117345451972524,0.238249179413445,-0.142272468423201,0,0,0.151364577116413,0.157655581335417,-0.105347249854452,0.110103495954749,0.520501813329835,0.0137971160652688,0,-0.0190685792979273,0.167661874425119,-0.0680507931687978,1.45351803607194,1.73790726075492,1.41191482916828,1.65563329172563,1.02514797473864,-0.103709203976993,0.161447405268062,-0.155869211577802,0,-0.0111050301216142,0.580328849047928,0.289023840121386,0,0,0.0243086710485695,0.443727841305386,0.255541943478012,-0.362355485882346,-0.193404359537791,0.180180880027902,-0.249320004813115,0.202886666984215,-0.193507644312671,0.0346761759362564,0,-0.121885620233409,0.245167684588856,-0.149467497960805,0,0,0.156856230096518,0.156884388212317,-0.114272387011814,0.116194425681665,0.533197891991979,0.0198692201885297,0,-0.025348080375891,0.17379042667159,-0.0693724340921572,1.46332333288738,1.74595066715474,1.41946234641507,1.6613951616031,1.0261406044637,-0.109494778929096,0.167992069339946,-0.157472977465827,0,-0.0186441511733885,0.585188861931825,0.292792109695382,0,0,0.0258819812071239,0.448059046630301,0.264748250241515,-0.369564069480037,-0.196090919943131,0.189946626127244,-0.252112542929772,0.206282657648139,-0.205323555602948,0.0409952537938908,0,-0.126054309181299,0.251471032329062,-0.156052834653695,0,0,0.161862791940503,0.156095694178937,-0.122502561178934,0.1217323578101,0.544855991594338,0.025452087946082,0,-0.0310859973834327,0.179411480624675,-0.0705434303213079,1.47223816383514,1.75313261842714,1.42642807636324,1.66703204460053,1.02711223881494,-0.11517494136923,0.174094538483009,-0.15916211351707,0,-0.0254300824488855,0.589602681009932,0.29592612801502,0,0,0.0273948936640833,0.451708569334457,0.273064800393095,-0.375958698309617,-0.198518312273353,0.198865839807546,-0.254868843568251,0.209801292456521,-0.215981975353431,0.0467364411680516,0,-0.129900189449159,0.257098656978979,-0.162104328896753,-0.0025460517521305,0,0.165855562857822,0.155461412662704,-0.130010517855801,0.126838076327136,0.555593321886995,0.0306898351094917,0,-0.0360650566982688,0.184484354713036,-0.0717002933339323,1.48001731460706,1.75940633277983,1.43238028763883,1.67208021963881,1.02801664734878,-0.120352150590632,0.179642350004948,-0.161245415680323,0,-0.0311335090595557,0.593955815227493,0.298554871428429,0,0,0.0289817780363067,0.455150126649273,0.280416416015368,-0.381443228090853,-0.200792533355431,0.206731829052159,-0.257383603312125,0.21313559225193,-0.225443970870542,0.0518533434996786,0,-0.133327758084016,0.262130954608635,-0.167584915333372,-0.00570535783440801,0,0.169305504618438,0.155182479212107,-0.136593392970815,0.131563774695594,0.5652535201076,0.0353828411403685,0,-0.0404445227158704,0.188914146512308,-0.0729270494973265,1.4873306608686,1.76527050404484,1.43808480002678,1.67680576050094,1.02883158059301,-0.125142599631319,0.184754757461733,-0.162846156246367,0.000291561349993582,-0.0365946089002023,0.59771110080973,0.301043218416208,0,0,0.030335768985812,0.458170001294981,0.287290475390905,-0.386635661198673,-0.202807219288729,0.214081370495798,-0.259712089222684,0.216115923266368,-0.234169001181925,0.0565411792463703,0,-0.136518582965005,0.266760592794985,-0.172619411973479,-0.00845835827868689,0,0.172418692615748,0.154754208980161,-0.14277146753309,0.135852894713503,0.574198824210831,0.0397319801830742,0,-0.0444765205135251,0.193061841027169,-0.0739521296158633,1.49420250023524,1.77074636867995,1.4432513807602,1.68134350702805,1.02958213436598,-0.129549775789447,0.189402079459379,-0.164375175785531,0.00209094354705828,-0.0415374653685194,0.601146212212441,0.303456827078913,0,0,0.0315352928468491,0.460956050559577,0.293639741851436,-0.391300049588775,-0.204497245139943,0.220835721948443,-0.261761564080222,0.218614657080728,-0.24186998305169,0.0605261448760525,0,-0.139395802009367,0.271124404581844,-0.177210754963994,-0.0108795963577725,0,0.174966329964424,0.154461644029635,-0.148347915575957,0.139794642510918,0.58252779839927,0.0435578811274297,0,-0.0480158747765469,0.196860648128883,-0.0748654502037796,1.50043375571614,1.77573403970327,1.44793362295875,1.68546189574665,1.03026747976848,-0.13357996994883,0.193631279870384,-0.165767076506544,0.00371930554339635,-0.0460455285022655,0.604285884326909,0.305662295988782,0,0,0.0326275722733121,0.463490847134519,0.29942974602729,-0.395550998701428,-0.206038992326396,0.226988685381006,-0.263631706277482,0.2208986802416,-0.248888434346811,0.0641546448990213,0,-0.142014613904231,0.275104082326757,-0.181396217564458,-0.0130871467489091,0,0.177290757474538,0.154203008083627,-0.153424050468258,0.143385165990398,0.590125453451356,0.0470431042206099,0,-0.0512412610565743,0.200323952025092,-0.0757066968054519,1.50621786506701,1.78017507012999,1.45242587624369,1.68935371263741,1.03077384566193,-0.137162103807611,0.197438050078845,-0.167116608677965,0.00539155610839742,-0.0501908061060207,0.60718314507095,0.307864182617513,0,0,0.0335059550584645,0.465643948774431,0.304936587797306,-0.39921588976253,-0.207438484487387,0.232556126576952,-0.265488331530051,0.222769036320076,-0.255404797189613,0.0674131679777717,0,-0.144465687141409,0.279194152001136,-0.18502757254445,-0.0151657283837837,0.000937125809142761,0.179268482666734,0.154215524753608,-0.158223409527856,0.146835505730049,0.597238990108248,0.0502486352600207,-0.00208302179501756,-0.0543071420121663,0.203566374597191,-0.0763568135491474,1.51125878069843,1.78393230095004,1.45624490422436,1.69289433957031,1.03112477681772,-0.140287546115152,0.200702492012843,-0.168873602529407,0.00714547738532001,-0.0536027240233128,0.610340718131896,0.309928886837068,0,0,0.0343041354093793,0.467651141440717,0.309938143953879,-0.401941196481482,-0.208698195175201,0.237341230922676,-0.267201392069368,0.224417441651795,-0.261330745344126,0.0701740697418674,0,-0.146543812308365,0.283267769918826,-0.188105447491825,-0.0172222501425961,0.00268995542368438,0.180958926733853,0.154715979693938,-0.162452693130227,0.150122992085562,0.603659450963865,0.0530170000109982,-0.0050514896332056,-0.0570837386094188,0.206436431515242,-0.0770253977625081,1.51594761938343,1.78743449154078,1.45983325695322,1.69617371607913,1.0314534910919,-0.143177898524004,0.203722969881081,-0.170324648662003,0.00870831754280336,-0.0568352702416018,0.613091406060875,0.311831763368603,0,0,0.0349981596444838,0.469433961490924,0.314537672487287,-0.404583389341351,-0.209842848751625,0.241795077429954,-0.268769677012986,0.225927762103554,-0.266770336307074,0.0727377713920031,0,-0.148480027715746,0.286958730840387,-0.190957950579711,-0.0190580129300436,0.00423008185185278,0.182511864839612,0.155058016791492,-0.166387705380903,0.153099518650908,0.609560463738962,0.0555892185129934,-0.00772689150268963,-0.0596315152180079,0.20910030103157,-0.0776011988103201,1.52022930830517,1.79063125918712,1.46311379988603,1.69916570502594,1.03175291000989,-0.145814265623517,0.206479207995692,-0.171640159561188,0.0101311593754234,-0.0597888376275775,0.615593735365554,0.313567075751587,-0.000646041187048513,0,0.035627040297062,0.471025573632629,0.318685229125593,-0.406946601569731,-0.210903838097788,0.245920876460084,-0.270117605191252,0.227471812837841,-0.271696978398236,0.0750819083183325,-0.00041801651884126,-0.150180438894701,0.290312562539292,-0.19355544850656,-0.0207448044933658,0.00567466242663064,0.183906405692663,0.155426152488162,-0.169908760878269,0.155883633118808,0.614982829034539,0.0579340328192546,-0.0102578439466772,-0.0619297956128013,0.211436253757232,-0.0781508564205716,1.52447610179741,1.79352885109959,1.46594120892199,1.70166900659721,1.03200739556237,-0.14800051137599,0.208916347496376,-0.173029985997442,0.0115294230206989,-0.0623046384879225,0.617900927198236,0.314943928956071,-0.00186819473457328,0,0.0362552692817083,0.472606396195892,0.322314297180042,-0.4091503313193,-0.211642673385849,0.249405993279713,-0.27130480888418,0.229270220131431,-0.275976733059543,0.0770873864508246,-0.00153920352276196,-0.151659794125543,0.293372630046304,-0.195848099235059,-0.0223569365572779,0.00697254176359661,0.185152712411358,0.155936325810667,-0.172951446152862,0.158619900327721,0.619852297453658,0.0600314112771175,-0.0126702417353559,-0.064004806007811,0.213425925535449,-0.0787073716450559,1.52822804584541,1.79617425587337,1.46855716457091,1.7040266057846,1.032243047546,-0.150053742701626,0.211159510410785,-0.174236791126441,0.0128022638967927,-0.0646284689262213,0.619998293252942,0.316252487916448,-0.00282405531435239,0,0.0368216475637991,0.474015773288717,0.325651248888803,-0.411146132660618,-0.212394653658256,0.252647429735052,-0.272401037686244,0.230810817062614,-0.279914201002849,0.07893109880299,-0.00251063517220531,-0.153026644825653,0.296154359684108,-0.197957822830502,-0.0238108716500985,0.00816252779109139,0.186280674763031,0.156358887870638,-0.175749996282145,0.161056004835633,0.624319109464972,0.0619602861585486,-0.0148459746986194,-0.0659211178609514,0.215254562744325,-0.0792258738773926,1.53165190432469,1.79858904189036,1.47094723583396,1.70617760401744,1.03245768708843,-0.151929853194959,0.213205886575127,-0.175330667659173,0.013962309504849,-0.0667508111018056,0.621905124227957,0.317448728950766,-0.00369003507763932,0,0.0373359929607712,0.475298239292489,0.328696667094994,-0.412968655823759,-0.213079828100365,0.255604959851718,-0.273402040589059,0.232211536676609,-0.28350685499194,0.080614509359861,-0.00339543560713141,-0.154273578010767,0.298690322639418,-0.199882245005489,-0.025134058279118,0.00924459044499757,0.187309715484935,0.156739681146923,-0.178304757330148,0.163274658806292,0.628395331748141,0.0637206658398802,-0.0168285715161831,-0.0676698436021233,0.216923687209745,-0.0796962749591121,1.53463941307999,1.8007500879518,1.47303215176193,1.70804757943716,1.03268920231946,-0.153609591039188,0.215047327982681,-0.176387904520313,0.0149568369248522,-0.0686096966564484,0.623664573740737,0.318505182330363,-0.00451250151626173,0,0.0378712475201686,0.476506791990265,0.331399617001297,-0.414544674207071,-0.213721143441699,0.258236799304693,-0.274305265900228,0.233461719732624,-0.286721281274135,0.0821495308204542,-0.00420062970153446,-0.155402979886222,0.300957987135911,-0.201607382804269,-0.0263417382416066,0.0102662704436627,0.18828305462287,0.157146163121602,-0.180529593156743,0.165291678906579,0.632052786568318,0.0652860049935705,-0.0186300748987311,-0.0692520217019122,0.218393120978858,-0.0801597651381361,1.53749218750475,1.80275482886899,1.47502106915638,1.7098369469616,1.03286404905974,-0.155168721156248,0.216750787291449,-0.177300134385687,0.0159248944200447,-0.0703714182462268,0.625252547896772,0.319499645435244,-0.00523496043238751,0,0.0382977587847614,0.47757226924258,0.333934901607851,-0.416057438606038,-0.214289335879976,0.260696059595052,-0.275136475639957,0.234625587698103,-0.289710446556774,0.0835491163721656,-0.00493647507539258,-0.156436705486557,0.30306789784768,-0.203207596553961,-0.0274428532642142,0.011164974771287,0.189134829117458,0.157463692276086,-0.182656414057437,0.167138751520505,0.635443766693488,0.0667502399940681,-0.0202798519369458,-0.0707048365682613,0.219780374125735,-0.0805485179265193,1.54009876231355,1.8045877690421,1.47684080742933,1.71147454607023,1.03302270635213,-0.156592729708208,0.218303374341812,-0.178122410524383,0.016808791038742,-0.0719860790068737,0.626694935025306,0.320408656288952,-0.00588729880265773,0,0.0386804594565431,0.478540017051873,0.336249398404577,-0.417445339220703,-0.214806442020535,0.262943595462757,-0.27589531009641,0.235688259375236,-0.29243862611408,0.0848247711836694,-0.00560630628323798,-0.157381454095822,0.304993507748659,-0.204668248737327,-0.0284444180706891,0.0119805530870153,0.189910724034926,0.157745136846056,-0.184601744025236,0.168819872523682,0.638538165576002,0.0680880965934744,-0.0217823007156815,-0.0720306133491703,0.221049993433968,-0.0809005220371681,1.54247575226773,1.80625918830383,1.47850082083082,1.71296792067633,1.03316709402832,-0.157890976707108,0.219718752270818,-0.178870423493231,0.0176143066226933,-0.0734590704662664,0.628008869733931,0.321237350575591,-0.00648089446426709,0,0.0390284311256508,0.479421729928552,0.338359742994834,-0.41871158364999,-0.21527764701193,0.26499333847179,-0.27658712417718,0.236656885210839,-0.294926187515923,0.0859877587979871,-0.00621663661186931,-0.158242937496744,0.306749013651138,-0.205999962790119,-0.0293568662065881,0.0127232231606916,0.190617922673539,0.158000145233121,-0.1863759488242,0.170351902232641,0.641359333094923,0.0693082315896943,-0.0231515751617236,-0.0732393754011977,0.222208017356787,-0.081220765822732,1.54464286251351,1.80778281599781,1.48001440401948,1.71432931378936,1.03329849571049,-0.159074362490941,0.22100897478688,-0.17955173917027,0.0183484559957576,-0.0748019948389098,0.62920630237807,0.321992680448283,-0.00702162590583502,0,0.0393452382681182,0.480225267285968,0.340283646903033,-0.419865994503899,-0.215707033685814,0.266862140733692,-0.277217690983487,0.237539670281379,-0.29719398179476,0.0870479309744965,-0.00677281950088133,-0.159028168558749,0.308349311259653,-0.2072139268278,-0.0301883526199938,0.0133998214906528,0.191262407762519,0.158231955271959,-0.187993527518122,0.171748276734676,0.643931141542691,0.0704206702036599,-0.0243996210070011,-0.0743412224826506,0.223263811924487,-0.0815123067399574,1.54635064020612,1.80909263982151,1.48121484740801,1.71544534357468,1.03354808024129,-0.160076465626275,0.222110193003206,-0.180206541068483,0.0189461079520398,-0.0758608939653275,0.630289819802484,0.322683139261724,-0.00748630999335661,0,0.0397121929921097,0.481021179019807,0.341842958271685,-0.420764945564041,-0.216148517161822,0.268428314891753,-0.277787180584064,0.238287496773388,-0.299076205922978,0.087969011147271,-0.00728361955014018,-0.159744737894744,0.309706617303387,-0.208264213449742,-0.0309471279586206,0.0141132414202702,0.19191137516475,0.158523973701179,-0.189275915679063,0.172951794618131,0.646161233947681,0.0713577657343202,-0.0255045953311178,-0.0753113122766388,0.224142933207558,-0.0818583863866405,1.54812984802176,1.81034226895951,1.48244853581509,1.71656084785989,1.03365239748886,-0.161050235170783,0.223178638849352,-0.180796748822245,0.0195538813764077,-0.0769528823629589,0.631298876160401,0.323304710893844,-0.00794388223910553,0,0.0399909338322019,0.481693285384848,0.343431097081821,-0.421704171035837,-0.216510184411289,0.269962882562267,-0.278308291730781,0.239019882062457,-0.300947186170826,0.088844891193921,-0.00774948344273964,-0.160390082682531,0.311030887855481,-0.209266932239752,-0.0316442264340449,0.0146910321202819,0.192443623254116,0.158735676450338,-0.190604790688701,0.174117284121664,0.648290859708974,0.0722763075140398,-0.0265428175462654,-0.0762199464130655,0.225008236967456,-0.0821101477535322,1.54978785731113,1.81149805827133,1.4836041831556,1.71759923825962,1.03374087389181,-0.161950305269312,0.224160593740732,-0.181315134990518,0.0201155635902948,-0.0779770770351651,0.632209753867651,0.323875041331245,-0.00835883014906496,0,0.0402268231631127,0.482297423394014,0.344901295503803,-0.422585462425294,-0.216831879289118,0.271385436737313,-0.278785217200913,0.239692872954257,-0.302676302506073,0.0896498101344946,-0.00817076414138928,-0.160982261001643,0.312249926707845,-0.210189517341891,-0.0322755642465515,0.0151987213803077,0.192925254948605,0.158908733645013,-0.191842250088925,0.175181599160133,0.650246295480123,0.0731234904039044,-0.0274911987537008,-0.0770550851941177,0.22581178906062,-0.0823259711395221,1.55130631010283,1.81255621779247,1.48466429827408,1.71854978958024,1.03382094028327,-0.162773394075105,0.225057045976368,-0.181781416533555,0.0206281495257909,-0.0789178641776908,0.6330364184951,0.324396173157034,-0.00873431791353931,0,0.0404376778980878,0.482846372199248,0.346245387325349,-0.423394886276221,-0.217123587975556,0.272687501162428,-0.279220586057856,0.240306659176113,-0.304257099743534,0.0903852015751924,-0.00855380660516449,-0.161523792837549,0.313363061830106,-0.211032130488859,-0.032849029435842,0.0156568585197265,0.193364574483848,0.159060835417762,-0.192975067719644,0.176150714867445,0.652031130729837,0.0738978420202549,-0.028355214636994,-0.077818202757751,0.226547771808639,-0.0825196819004553,1.55269192737287,1.81352183674724,1.48563230645003,1.71941696253906,1.03389379956764,-0.163524159876157,0.225874481018501,-0.182204513900347,0.0210952630436296,-0.0797771685151798,0.633788670825608,0.324871465592479,-0.00907533439879026,0,0.0406289011855917,0.483346309214863,0.347471351904706,-0.424134205458407,-0.217389157957013,0.273875553344849,-0.279617611354179,0.240865945877882,-0.30569901368709,0.0910559198797423,-0.00890266446884339,-0.162017934459617,0.314377939137155,-0.211800488515342,-0.0333709777332352,0.0160731766413931,0.193765183169679,0.159197777230151,-0.194008685422364,0.177033542251105,0.653658394808662,0.0746042184100445,-0.0291424209751,-0.078514282475668,0.227219468482748,-0.0826954400450222,1.55395523879412,1.81440219518417,1.48651510528855,1.72020747921752,1.0339601300103,-0.16420852279461,0.226619613488764,-0.18258949601816,0.0215209128585394,-0.0805608287254731,0.63447385629501,0.325304707687446,-0.00938565900038779,0,0.0408029027210807,0.483801825509989,0.34858895914626,-0.424808455944844,-0.217631113985437,0.27495871554243,-0.27997951925572,0.241375556872128,-0.307013491675257,0.091667344081791,-0.00922051685877589,-0.162468452378166,0.315302950405595,-0.2125008612784,-0.0338464107143573,0.0164521996909526,0.194130331040709,0.159321992625997,-0.194951055471562,0.177837975747795,0.655141621035789,0.0752482200390835,-0.0298597535232807,-0.079148843617038,0.22783190772585,-0.0828553436651297,1.55510676381127,1.81520460522241,1.48731987936179,1.72092798540756,1.03402052024723,-0.164832250618283,0.227298750014628,-0.182940100650993,0.0219087940455387,-0.0812751868458242,0.63509815070882,0.325699554178099,-0.00966827873415894,0,0.0409613528436858,0.484216907032603,0.349607622339331,-0.425423082447702,-0.217851582334481,0.275946029431402,-0.280309359098012,0.241839926246023,-0.308211594307288,0.0922246233297161,-0.00951014494811151,-0.162879072179063,0.316145996697405,-0.21313918927956,-0.0342795868208234,0.0167974532355462,0.194463094608776,0.159434929656336,-0.195810040531378,0.178571040037952,0.656493455800281,0.0758352404418568,-0.0305134530393514,-0.0797272051870097,0.228390162850021,-0.0830009326714569,1.55615630636783,1.81593590291423,1.48805342096811,1.72158464430859,1.03407550492289,-0.165400683675148,0.227917698877257,-0.18325948577686,0.0222622626719221,-0.0819262800444976,0.635667021855516,0.326059387005245,-0.00992574151594461,0,0.0411056676907118,0.484595148391505,0.35053604330827,-0.4259832724454,-0.218052473292155,0.276845907300371,-0.280609950365681,0.242263081123565,-0.309303555806221,0.0927325189061156,-0.00977405895535016,-0.163253285276752,0.316914321836168,-0.213720941656538,-0.0346742932683954,0.0171119973866016,0.194766325059243,0.159537693675451,-0.196592954604287,0.179239079667575,0.657725494082968,0.076370278456696,-0.0311091715380277,-0.0802543030699213,0.228898979637504,-0.0831335203295031,1.55711285956343,1.81660236479617,1.4887219933336,1.72218309694862,1.03412557066146,-0.165918709863023,0.228481775672381,-0.183550458278159,0.0225843710173355,-0.0825196782554962,0.636185403901965,0.326387302218502,-0.0101603106259755,0,0.0412371162025691,0.484939818278687,0.351382187904717,-0.426493816610621,-0.218235524453671,0.277666060982607,-0.280883877292855,0.242648681816382,-0.310298746184408,0.0931953912635005,-0.0100145416097172,-0.163594304186771,0.317614535582528,-0.214251118670924,-0.0350339540621684,0.0173985789554368,0.195042636219561,0.159631229680231,-0.197306505130919,0.17984786059779,0.65884832428353,0.0768579167013067,-0.0316520489715652,-0.0807346635542239,0.229362716109325,-0.0832542792292616],"dev_ratio":[0,0.0295353267397699,0.0556272269063467,0.095066819327737,0.131947540686354,0.168393669236035,0.228719073078255,0.289182759343375,0.341492799393285,0.386606540225721,0.425399645145748,0.458666161153056,0.487120515602873,0.511400956845504,0.532589283760069,0.551969691844778,0.570364543550529,0.587267261016614,0.601852522642839,0.614448145908135,0.625932127827135,0.63651102085077,0.646189782715703,0.654654778788819,0.661881578065095,0.668326654719301,0.674158355793615,0.680027471988589,0.685380480340036,0.690178755765135,0.694288765419095,0.698642087742925,0.702383611278747,0.706062844772531,0.709254276134246,0.711918194835755,0.71416406215942,0.716034938869734,0.717598220813354,0.718996194353704,0.720232992236691,0.721286547274296,0.722195741834959,0.72295497705672,0.723598222937153,0.724127876471589,0.724573791954232,0.724948042431876,0.725258817660853,0.725526709890945,0.725749867226189,0.725936682280091,0.726094118454759,0.726226209289587,0.726335945809908,0.726427152461854,0.726501892931141,0.72656498357574,0.726617444490332,0.726661029339977,0.726697235314371,0.726725899499036,0.726750901633036,0.726771846252099,0.726789272554421,0.726803751382157,0.726815777216018,0.726825764603942,0.726834058690055,0.726840946357152],"nulldev":683.785773848426,"npasses":325}
